svm_type c_svc
kernel_type rbf
gamma 0.0078125
nr_class 7
total_sv 10
rho 0.997476 0.999512 0.996089 0 0 0 -0.000961857 -0.00147175 -0.998241 -0.999822 -0.999095 -0.000913487 -1.00033 -0.997316 -0.997715 -0.997514 -0.996261 -0.996319 0 0 0
label 1000 800 1200 1600 700 400 900
nr_sv 1 2 2 2 1 1 1
SV
0.03125 0.03125 0.03125 0.03125 0.03125 0.03125 0:0.833333 1:-1 2:1 3:0.333333 4:1 5:1 7:-1 8:-0.25 9:0.166667 10:1 11:-0.5 12:1 13:-1 14:0.5 
-0.01670624836086228 0.03125 0.03125 0.02018654351492837 0.01387887137814843 0.0243374890563452 1:-1 2:1 3:0.833333 4:-1 5:-0.5 6:0.333333 7:1 8:1 10:-1 11:-0.25 12:-0.2 13:1 14:-0.5 
-0.01454375163913772 0.03125 0.03125 0.01106345648507164 0.01737112862185157 0.0069125109436548 0:-1 1:1 2:-1 3:-0.5 4:1 5:-1 6:1 7:-1 8:-0.5 9:0.333333 10:1 11:-0.5 12:-0.8 13:1 14:-0.5 
-0.0130772984484008 -0.03125 0.03125 0.005186930917310728 0.01832158688295222 0.007685371868948208 0:-0.333333 1:1 2:1 4:1 5:-0.5 6:0.833333 7:-1 8:-0.5 9:0.333333 10:1 11:1 12:-0.4 13:-1 14:-0.25 
-0.0181727015515992 -0.03125 0.03125 0.02606306908268927 0.01292841311704778 0.02356462813105179 0:1 1:-1 2:1 3:-0.333333 4:1 5:-0.5 6:-1 7:1 8:-1 9:-0.5 10:1 11:-1 12:0.8 13:-1 14:-0.5 
-0.03125 -0.03125 -0.03125 0.0249375972703674 0.0100963659890123 0.02251440980366045 0:0.333333 1:-1 2:1 3:-0.333333 4:1 5:-0.5 7:1 8:-0.5 9:0.833333 10:-1 11:-0.5 13:1 14:1 
-0 -0.03125 -0.03125 0.006312402729632603 0.0211536340109877 0.008735590196339554 0:-0.333333 1:1 2:1 3:-1 4:1 5:-1 6:-0.5 7:1 8:-1 9:1 10:-1 11:-0.5 13:1 14:-0.5 
-0.03125 -0.03125 -0.03125 -0.03125 0.03125 0.03125 0:1 1:-1 2:1 3:0.333333 4:1 5:-0.5 6:-0.333333 7:1 8:-0.5 10:1 11:-0.5 12:0.6 13:-1 14:-0.5 
-0.03125 -0.03125 -0.03125 -0.03125 -0.03125 0.03125 0:-0.5 1:1 2:-1 3:1 4:-1 5:-0.5 6:0.333333 7:1 8:-0.5 9:-0.333333 10:1 11:-0.5 12:-0.4 13:1 14:-0.5 
-0.03125 -0.03125 -0.03125 -0.03125 -0.03125 -0.03125 0:0.333333 1:-1 2:1 3:1 4:-1 5:-0.5 6:-0.333333 7:1 8:-0.5 9:-1 10:1 11:-1 12:-1 13:1 14:-1 
